digraph Tree {
node [shape=box, style="filled, rounded", color="black", fontname=helvetica] ;
edge [fontname=helvetica] ;
0 [label=<Land &le; 0.5<br/>entropy = 1.0<br/>samples = 656258<br/>value = [328129, 328129]<br/>class = y<SUB>0</SUB>>, fillcolor="#e5813900"] ;
1 [label=<User Type_New User &le; 0.5<br/>entropy = 0.953<br/>samples = 110083<br/>value = [41035, 69048]<br/>class = y<SUB>1</SUB>>, fillcolor="#399de567"] ;
0 -> 1 [labeldistance=2.5, labelangle=45, headlabel="True"] ;
2 [label=<Channel_Social Media &le; 0.5<br/>entropy = 0.926<br/>samples = 47771<br/>value = [16309, 31462]<br/>class = y<SUB>1</SUB>>, fillcolor="#399de57b"] ;
1 -> 2 ;
3 [label=<Weekend &le; 0.5<br/>entropy = 0.932<br/>samples = 44587<br/>value = [15505, 29082]<br/>class = y<SUB>1</SUB>>, fillcolor="#399de577"] ;
2 -> 3 ;
4 [label=<Treatment &le; 0.5<br/>entropy = 0.938<br/>samples = 30999<br/>value = [11003, 19996]<br/>class = y<SUB>1</SUB>>, fillcolor="#399de573"] ;
3 -> 4 ;
5 [label=<entropy = 0.931<br/>samples = 15647<br/>value = [5424, 10223]<br/>class = y<SUB>1</SUB>>, fillcolor="#399de578"] ;
4 -> 5 ;
6 [label=<entropy = 0.945<br/>samples = 15352<br/>value = [5579, 9773]<br/>class = y<SUB>1</SUB>>, fillcolor="#399de56d"] ;
4 -> 6 ;
7 [label=<Treatment &le; 0.5<br/>entropy = 0.916<br/>samples = 13588<br/>value = [4502, 9086]<br/>class = y<SUB>1</SUB>>, fillcolor="#399de581"] ;
3 -> 7 ;
8 [label=<entropy = 0.919<br/>samples = 6753<br/>value = [2259, 4494]<br/>class = y<SUB>1</SUB>>, fillcolor="#399de57f"] ;
7 -> 8 ;
9 [label=<entropy = 0.913<br/>samples = 6835<br/>value = [2243, 4592]<br/>class = y<SUB>1</SUB>>, fillcolor="#399de582"] ;
7 -> 9 ;
10 [label=<Treatment &le; 0.5<br/>entropy = 0.815<br/>samples = 3184<br/>value = [804, 2380]<br/>class = y<SUB>1</SUB>>, fillcolor="#399de5a9"] ;
2 -> 10 ;
11 [label=<Weekend &le; 0.5<br/>entropy = 0.791<br/>samples = 1579<br/>value = [375, 1204]<br/>class = y<SUB>1</SUB>>, fillcolor="#399de5b0"] ;
10 -> 11 ;
12 [label=<entropy = 0.79<br/>samples = 1106<br/>value = [262, 844]<br/>class = y<SUB>1</SUB>>, fillcolor="#399de5b0"] ;
11 -> 12 ;
13 [label=<entropy = 0.793<br/>samples = 473<br/>value = [113, 360]<br/>class = y<SUB>1</SUB>>, fillcolor="#399de5af"] ;
11 -> 13 ;
14 [label=<Weekend &le; 0.5<br/>entropy = 0.838<br/>samples = 1605<br/>value = [429, 1176]<br/>class = y<SUB>1</SUB>>, fillcolor="#399de5a2"] ;
10 -> 14 ;
15 [label=<entropy = 0.848<br/>samples = 1132<br/>value = [311, 821]<br/>class = y<SUB>1</SUB>>, fillcolor="#399de59e"] ;
14 -> 15 ;
16 [label=<entropy = 0.81<br/>samples = 473<br/>value = [118, 355]<br/>class = y<SUB>1</SUB>>, fillcolor="#399de5aa"] ;
14 -> 16 ;
17 [label=<Weekend &le; 0.5<br/>entropy = 0.969<br/>samples = 62312<br/>value = [24726, 37586]<br/>class = y<SUB>1</SUB>>, fillcolor="#399de557"] ;
1 -> 17 ;
18 [label=<Treatment &le; 0.5<br/>entropy = 0.973<br/>samples = 42999<br/>value = [17363, 25636]<br/>class = y<SUB>1</SUB>>, fillcolor="#399de552"] ;
17 -> 18 ;
19 [label=<Channel_Social Media &le; 0.5<br/>entropy = 0.971<br/>samples = 21800<br/>value = [8720, 13080]<br/>class = y<SUB>1</SUB>>, fillcolor="#399de555"] ;
18 -> 19 ;
20 [label=<entropy = 0.971<br/>samples = 20660<br/>value = [8249, 12411]<br/>class = y<SUB>1</SUB>>, fillcolor="#399de556"] ;
19 -> 20 ;
21 [label=<entropy = 0.978<br/>samples = 1140<br/>value = [471, 669]<br/>class = y<SUB>1</SUB>>, fillcolor="#399de54b"] ;
19 -> 21 ;
22 [label=<Channel_Social Media &le; 0.5<br/>entropy = 0.975<br/>samples = 21199<br/>value = [8643, 12556]<br/>class = y<SUB>1</SUB>>, fillcolor="#399de54f"] ;
18 -> 22 ;
23 [label=<entropy = 0.975<br/>samples = 20073<br/>value = [8187, 11886]<br/>class = y<SUB>1</SUB>>, fillcolor="#399de54f"] ;
22 -> 23 ;
24 [label=<entropy = 0.974<br/>samples = 1126<br/>value = [456, 670]<br/>class = y<SUB>1</SUB>>, fillcolor="#399de551"] ;
22 -> 24 ;
25 [label=<Treatment &le; 0.5<br/>entropy = 0.959<br/>samples = 19313<br/>value = [7363, 11950]<br/>class = y<SUB>1</SUB>>, fillcolor="#399de562"] ;
17 -> 25 ;
26 [label=<Channel_Social Media &le; 0.5<br/>entropy = 0.952<br/>samples = 9737<br/>value = [3621, 6116]<br/>class = y<SUB>1</SUB>>, fillcolor="#399de568"] ;
25 -> 26 ;
27 [label=<entropy = 0.952<br/>samples = 9273<br/>value = [3446, 5827]<br/>class = y<SUB>1</SUB>>, fillcolor="#399de568"] ;
26 -> 27 ;
28 [label=<entropy = 0.956<br/>samples = 464<br/>value = [175, 289]<br/>class = y<SUB>1</SUB>>, fillcolor="#399de565"] ;
26 -> 28 ;
29 [label=<Channel_Social Media &le; 0.5<br/>entropy = 0.965<br/>samples = 9576<br/>value = [3742, 5834]<br/>class = y<SUB>1</SUB>>, fillcolor="#399de55b"] ;
25 -> 29 ;
30 [label=<entropy = 0.965<br/>samples = 9080<br/>value = [3549, 5531]<br/>class = y<SUB>1</SUB>>, fillcolor="#399de55b"] ;
29 -> 30 ;
31 [label=<entropy = 0.964<br/>samples = 496<br/>value = [193, 303]<br/>class = y<SUB>1</SUB>>, fillcolor="#399de55d"] ;
29 -> 31 ;
32 [label=<Weekend &le; 0.5<br/>entropy = 0.998<br/>samples = 546175<br/>value = [287094, 259081]<br/>class = y<SUB>0</SUB>>, fillcolor="#e5813919"] ;
0 -> 32 [labeldistance=2.5, labelangle=-45, headlabel="False"] ;
33 [label=<Channel_Social Media &le; 0.5<br/>entropy = 0.995<br/>samples = 380332<br/>value = [205748, 174584]<br/>class = y<SUB>0</SUB>>, fillcolor="#e5813927"] ;
32 -> 33 ;
34 [label=<Treatment &le; 0.5<br/>entropy = 0.995<br/>samples = 360313<br/>value = [195742, 164571]<br/>class = y<SUB>0</SUB>>, fillcolor="#e5813929"] ;
33 -> 34 ;
35 [label=<User Type_New User &le; 0.5<br/>entropy = 0.996<br/>samples = 179651<br/>value = [96216, 83435]<br/>class = y<SUB>0</SUB>>, fillcolor="#e5813922"] ;
34 -> 35 ;
36 [label=<entropy = 0.997<br/>samples = 73915<br/>value = [39211, 34704]<br/>class = y<SUB>0</SUB>>, fillcolor="#e581391d"] ;
35 -> 36 ;
37 [label=<entropy = 0.996<br/>samples = 105736<br/>value = [57005, 48731]<br/>class = y<SUB>0</SUB>>, fillcolor="#e5813925"] ;
35 -> 37 ;
38 [label=<User Type_New User &le; 0.5<br/>entropy = 0.993<br/>samples = 180662<br/>value = [99526, 81136]<br/>class = y<SUB>0</SUB>>, fillcolor="#e581392f"] ;
34 -> 38 ;
39 [label=<entropy = 0.994<br/>samples = 72962<br/>value = [39871, 33091]<br/>class = y<SUB>0</SUB>>, fillcolor="#e581392b"] ;
38 -> 39 ;
40 [label=<entropy = 0.992<br/>samples = 107700<br/>value = [59655, 48045]<br/>class = y<SUB>0</SUB>>, fillcolor="#e5813932"] ;
38 -> 40 ;
41 [label=<User Type_New User &le; 0.5<br/>entropy = 1.0<br/>samples = 20019<br/>value = [10006, 10013]<br/>class = y<SUB>1</SUB>>, fillcolor="#399de500"] ;
33 -> 41 ;
42 [label=<Treatment &le; 0.5<br/>entropy = 0.997<br/>samples = 8760<br/>value = [4104, 4656]<br/>class = y<SUB>1</SUB>>, fillcolor="#399de51e"] ;
41 -> 42 ;
43 [label=<entropy = 0.998<br/>samples = 4461<br/>value = [2112, 2349]<br/>class = y<SUB>1</SUB>>, fillcolor="#399de51a"] ;
42 -> 43 ;
44 [label=<entropy = 0.996<br/>samples = 4299<br/>value = [1992, 2307]<br/>class = y<SUB>1</SUB>>, fillcolor="#399de523"] ;
42 -> 44 ;
45 [label=<Treatment &le; 0.5<br/>entropy = 0.998<br/>samples = 11259<br/>value = [5902, 5357]<br/>class = y<SUB>0</SUB>>, fillcolor="#e5813918"] ;
41 -> 45 ;
46 [label=<entropy = 0.998<br/>samples = 5613<br/>value = [2952, 2661]<br/>class = y<SUB>0</SUB>>, fillcolor="#e5813919"] ;
45 -> 46 ;
47 [label=<entropy = 0.999<br/>samples = 5646<br/>value = [2950, 2696]<br/>class = y<SUB>0</SUB>>, fillcolor="#e5813916"] ;
45 -> 47 ;
48 [label=<User Type_New User &le; 0.5<br/>entropy = 1.0<br/>samples = 165843<br/>value = [81346, 84497]<br/>class = y<SUB>1</SUB>>, fillcolor="#399de50a"] ;
32 -> 48 ;
49 [label=<Treatment &le; 0.5<br/>entropy = 0.997<br/>samples = 69024<br/>value = [32266, 36758]<br/>class = y<SUB>1</SUB>>, fillcolor="#399de51f"] ;
48 -> 49 ;
50 [label=<Channel_Social Media &le; 0.5<br/>entropy = 0.994<br/>samples = 36045<br/>value = [16438, 19607]<br/>class = y<SUB>1</SUB>>, fillcolor="#399de529"] ;
49 -> 50 ;
51 [label=<entropy = 0.995<br/>samples = 34370<br/>value = [15692, 18678]<br/>class = y<SUB>1</SUB>>, fillcolor="#399de529"] ;
50 -> 51 ;
52 [label=<entropy = 0.991<br/>samples = 1675<br/>value = [746, 929]<br/>class = y<SUB>1</SUB>>, fillcolor="#399de532"] ;
50 -> 52 ;
53 [label=<Channel_Social Media &le; 0.5<br/>entropy = 0.999<br/>samples = 32979<br/>value = [15828, 17151]<br/>class = y<SUB>1</SUB>>, fillcolor="#399de514"] ;
49 -> 53 ;
54 [label=<entropy = 0.999<br/>samples = 31127<br/>value = [15058, 16069]<br/>class = y<SUB>1</SUB>>, fillcolor="#399de510"] ;
53 -> 54 ;
55 [label=<entropy = 0.979<br/>samples = 1852<br/>value = [770, 1082]<br/>class = y<SUB>1</SUB>>, fillcolor="#399de54a"] ;
53 -> 55 ;
56 [label=<Channel_Social Media &le; 0.5<br/>entropy = 1.0<br/>samples = 96819<br/>value = [49080, 47739]<br/>class = y<SUB>0</SUB>>, fillcolor="#e5813907"] ;
48 -> 56 ;
57 [label=<Treatment &le; 0.5<br/>entropy = 1.0<br/>samples = 91860<br/>value = [46623, 45237]<br/>class = y<SUB>0</SUB>>, fillcolor="#e5813908"] ;
56 -> 57 ;
58 [label=<entropy = 1.0<br/>samples = 44764<br/>value = [22683, 22081]<br/>class = y<SUB>0</SUB>>, fillcolor="#e5813907"] ;
57 -> 58 ;
59 [label=<entropy = 1.0<br/>samples = 47096<br/>value = [23940, 23156]<br/>class = y<SUB>0</SUB>>, fillcolor="#e5813908"] ;
57 -> 59 ;
60 [label=<Treatment &le; 0.5<br/>entropy = 1.0<br/>samples = 4959<br/>value = [2457, 2502]<br/>class = y<SUB>1</SUB>>, fillcolor="#399de505"] ;
56 -> 60 ;
61 [label=<entropy = 0.999<br/>samples = 2519<br/>value = [1226, 1293]<br/>class = y<SUB>1</SUB>>, fillcolor="#399de50d"] ;
60 -> 61 ;
62 [label=<entropy = 1.0<br/>samples = 2440<br/>value = [1231, 1209]<br/>class = y<SUB>0</SUB>>, fillcolor="#e5813905"] ;
60 -> 62 ;
}